-2.129879939857502791e+00 -2.310576583631363867e+00 -1.471488467350999363e+00 -9.235433044658525326e-01 -6.984689961207822817e-01 -9.625257589039771799e-01 -9.614452198453864451e-01 -1.427540411330348258e+00 -3.990580330147558419e-01 -1.648090949788263634e-02
-1.070045317391796091e+00 -7.752180864728686061e-01 -6.749634335523923001e-01 -9.007997219948288281e-01 -7.880177635855766249e-01 -1.047185527594308052e+00 -3.399452209706904648e-01 -1.113475353985468264e+00 -6.160085731763444150e-02 -1.340397230314227806e-01
-8.284794979646316060e-01 -5.576353109322752521e-01 -4.805856655095790408e-01 -7.615468546359071000e-01 -5.552665402937490002e-01 -2.697186964096912054e-01 -4.534693254785295280e-01 1.425220257116903699e+00 -2.161118368396167111e-01 -4.889390028735760563e-01
-7.688394462670063156e-02 1.607978801788529366e-01 -2.993895590763689940e-01 2.519858367536886301e-01 -4.301078737162866150e-01 -2.775319322411444189e-01 -2.074983628353954668e-01 -8.085107523230210536e-01 -2.682370336284060630e-01 -1.606690881800413792e-02
-5.838922813214114660e-02 -2.040240279801582846e-01 1.155518733983666307e-01 4.498821147732854492e-02 2.314576007765036525e-01 -1.566291627548634657e-01 3.702815832345822677e-01 -4.345352982229960248e-01 1.760227235590611228e-01 1.624983477165483636e-01
4.246072054942959806e-01 1.732157572386336386e-01 6.861714515286963800e-02 1.378209514717313178e-01 5.745965037029478195e-02 5.905992860144803069e-01 -8.555984183074778759e-02 1.424274584451299397e+00 1.488554914858184475e-01 1.784860661569809548e-01
5.326746268340083468e-01 3.903184177501226038e-01 6.341594133194795591e-01 1.017379353209622694e+00 -9.219943265096760057e-03 6.812402032668718466e-01 1.406154279171769605e-01 -1.771802545867682821e-01 -1.666443715762567779e-01 2.545094044191787974e-01
1.340651982192738068e+00 8.902017365278072081e-01 8.921813424485683375e-02 2.194876864739950251e-01 4.915626591254054767e-01 2.902948590791714079e-01 1.359687416830835938e+00 -1.719574025726342548e-01 4.295777997760413247e-01 6.006236372527247458e-02
7.078502665060099064e-01 9.663823124967101386e-01 1.043819118315869821e+00 2.610842752818612889e-01 1.360293665293931920e+00 5.125077349514641778e-01 3.447689366475828465e-02 9.103137623501349474e-01 7.505362872218510617e-01 -4.739602804881787312e-02
1.157893846945722061e+00 1.266537904824541760e+00 9.750614410578972713e-01 6.531435664283601339e-01 3.403075414153569067e-01 6.389489945919963887e-01 1.428566493133918702e-01 3.733908691028979820e-01 -3.933401696661018021e-01 4.736639025172400402e-02
